{
  "status": "Every success is exact. A miss is only search evidence.",
  "dimension": 5,
  "heads": 4,
  "targets": {
    "one_flip": {
      "exceptions": [
        3
      ],
      "truth_mask_hex": "0x69969661",
      "attempts": [
        {
          "positive_heads": 0,
          "trials": 1000,
          "method": "continuous_inner_lp",
          "continuous_best": {
            "positive_heads": 0,
            "restart": 7,
            "continuous_inner_lp_margin": 4.2739606783450503e-05,
            "active_dual_rows": 21,
            "anchor_index": 3,
            "anchor_value": -1,
            "optimizer_success": true,
            "optimizer_message": "CONVERGENCE: REL_REDUCTION_OF_F_<=_FACTR*EPSMCH",
            "literal_weights": [
              [
                0.4703410841425249,
                0.04472025014084929,
                0.08236499916376262,
                0.19641543826313865,
                0.042939569912997064,
                0.1632186583767275
              ],
              [
                0.0736851114873588,
                0.24440772924746432,
                0.26660515349486597,
                0.17804950499458283,
                0.0042838326051869895,
                0.2329686681705412
              ],
              [
                0.517525501752128,
                0.013107643516663903,
                0.0032254655676323346,
                0.42344819951265517,
                0.039113976159862264,
                0.0035792134910584855
              ],
              [
                0.14196869465930492,
                0.18559323181344337,
                0.23500313446490326,
                0.22167770598454684,
                0.1107749904566404,
                0.10498224262116122
              ]
            ]
          },
          "certificate": {
            "denominators": [
              [
                999,
                -45,
                -82,
                -196,
                -43,
                -163
              ],
              [
                1000,
                -244,
                -267,
                -178,
                -4,
                -233
              ],
              [
                1000,
                -13,
                -3,
                -423,
                -39,
                -4
              ],
              [
                1001,
                -186,
                -235,
                -222,
                -111,
                -105
              ]
            ],
            "score_coefficients": [
              560844,
              -444402019,
              -2213299,
              -291190516,
              -544681315,
              91874053,
              -565542606,
              156143031,
              -172489536,
              -40651692,
              5853943,
              -90225748,
              38118112,
              -4369943,
              82807710,
              193504472,
              494895631,
              -8523759,
              439219693,
              -268010327,
              145117267,
              186844020,
              -25161103,
              50064797,
              229775269
            ],
            "minimum_signed_cleared_score": 1021791879326,
            "floating_margin": 277083.64810943604,
            "positive_heads": 0,
            "restart": 7,
            "rounding_scale": 1000,
            "continuous_inner_lp_margin": 4.2739606783450503e-05
          }
        },
        {
          "positive_heads": 1,
          "trials": 1000,
          "method": "continuous_inner_lp",
          "continuous_best": {
            "positive_heads": 1,
            "restart": 24,
            "continuous_inner_lp_margin": 0.3526170760707716,
            "active_dual_rows": 18,
            "anchor_index": 12,
            "anchor_value": 1,
            "optimizer_success": true,
            "optimizer_message": "CONVERGENCE: REL_REDUCTION_OF_F_<=_FACTR*EPSMCH",
            "literal_weights": [
              [
                1.9702741743212914e-05,
                0.01696485075713844,
                0.01908736216848557,
                0.06574453944663965,
                0.8685513280571089,
                0.029632216828884398
              ],
              [
                0.022956562049115403,
                7.635889543083827e-05,
                9.877048121465697e-05,
                0.9486428370868785,
                0.007500210671381534,
                0.020725260815979238
              ],
              [
                0.015560569004791585,
                0.4261326523966781,
                0.31810783376287943,
                0.06360182390469053,
                0.17073980483057297,
                0.005857316100387515
              ],
              [
                9.894771055112108e-06,
                0.07014995978426598,
                0.922107380894552,
                0.0002515146115691962,
                0.005685455015390375,
                0.0017957949231673935
              ]
            ]
          },
          "certificate": {
            "denominators": [
              [
                1002,
                -17,
                -19,
                -66,
                -869,
                -30
              ],
              [
                1003,
                -1,
                -1,
                -949,
                -8,
                -21
              ],
              [
                1001,
                -426,
                -318,
                -64,
                -171,
                -6
              ],
              [
                1,
                70,
                922,
                1,
                6,
                2
              ]
            ],
            "score_coefficients": [
              1206020923,
              6062112803,
              -6077843563,
              -6804892702,
              6793729129,
              1183092728,
              -1759148410,
              57065766521,
              -591578956,
              -595767747,
              -54121130982,
              -7934694179,
              -1225671300,
              85064322086,
              -41167139132,
              -22110936696,
              77768851,
              -8227726943,
              3526585388,
              -1352246047,
              -93901165476,
              -1250418703140,
              -1381458133,
              -8512606295,
              -2721894601
            ],
            "minimum_signed_cleared_score": 626597601460,
            "floating_margin": 91.84575314179529,
            "positive_heads": 1,
            "restart": 24,
            "rounding_scale": 1000,
            "continuous_inner_lp_margin": 0.3526170760707716
          }
        },
        {
          "positive_heads": 2,
          "trials": 1000,
          "method": "continuous_inner_lp",
          "continuous_best": {
            "positive_heads": 2,
            "restart": 7,
            "continuous_inner_lp_margin": 0.27086982836355666,
            "active_dual_rows": 19,
            "anchor_index": 3,
            "anchor_value": -1,
            "optimizer_success": true,
            "optimizer_message": "CONVERGENCE: REL_REDUCTION_OF_F_<=_FACTR*EPSMCH",
            "literal_weights": [
              [
                2.581522127078622e-05,
                0.02358596987213842,
                0.0007043268348107782,
                0.6754906066134392,
                0.028257544195482338,
                0.2719357372628585
              ],
              [
                0.0010340094282560127,
                0.04262935115128206,
                0.034879132081490294,
                0.3042188036138309,
                0.2712986988967459,
                0.3459400048283948
              ],
              [
                0.0016166167440896328,
                0.009859884378903498,
                5.752002398025086e-05,
                0.34694110656498295,
                0.32371409054731604,
                0.3178107817407275
              ],
              [
                0.007543842288514127,
                0.23508140988581766,
                0.7571495243271602,
                4.694704622211969e-05,
                5.882888849818828e-05,
                0.00011944756378780955
              ]
            ]
          },
          "certificate": {
            "denominators": [
              [
                102,
                -2,
                -1,
                -68,
                -3,
                -27
              ],
              [
                100,
                -4,
                -3,
                -30,
                -27,
                -35
              ],
              [
                1,
                1,
                1,
                35,
                32,
                32
              ],
              [
                1,
                24,
                76,
                1,
                1,
                1
              ]
            ],
            "score_coefficients": [
              133023,
              -45993,
              66906,
              64796,
              -598135,
              629384,
              599438,
              233645,
              367536,
              623532,
              -609441,
              -709465,
              -624368,
              138557,
              -835992,
              -768282,
              -10021307,
              -9911646,
              -10041331,
              57553,
              4297782,
              13043168,
              266819,
              235018,
              268478
            ],
            "minimum_signed_cleared_score": 28399004,
            "floating_margin": 37.748030458924404,
            "positive_heads": 2,
            "restart": 7,
            "rounding_scale": 100,
            "continuous_inner_lp_margin": 0.27086982836355666
          }
        },
        {
          "positive_heads": 3,
          "trials": 1000,
          "method": "continuous_inner_lp",
          "continuous_best": {
            "positive_heads": 3,
            "restart": 3,
            "continuous_inner_lp_margin": 7.612144624725997e-05,
            "active_dual_rows": 21,
            "anchor_index": 1,
            "anchor_value": -1,
            "optimizer_success": true,
            "optimizer_message": "CONVERGENCE: REL_REDUCTION_OF_F_<=_FACTR*EPSMCH",
            "literal_weights": [
              [
                0.8717574245489553,
                0.01613691336840699,
                0.011010647362522774,
                0.057008907729927324,
                0.015196756160060778,
                0.028889350830127003
              ],
              [
                0.16362761644928084,
                0.763851814341336,
                0.015520777589820728,
                0.0028118809944034577,
                0.041350006028423855,
                0.012837904596735429
              ],
              [
                0.30054709528910195,
                0.18028477873395943,
                0.12004813710096691,
                0.07835459937709174,
                0.1894010261810561,
                0.13136436331782392
              ],
              [
                0.2537435310722953,
                0.16784322693147846,
                0.14215890595005454,
                0.08448342844061547,
                0.1962372185719701,
                0.15553368903358605
              ]
            ]
          },
          "certificate": {
            "denominators": [
              [
                1000,
                -16,
                -11,
                -57,
                -15,
                -29
              ],
              [
                164,
                764,
                16,
                3,
                41,
                13
              ],
              [
                301,
                180,
                120,
                78,
                189,
                131
              ],
              [
                254,
                168,
                142,
                84,
                196,
                156
              ]
            ],
            "score_coefficients": [
              2277162,
              -2127137356,
              -2982746445,
              79457386,
              317745436,
              219233250,
              244453153,
              -362633271,
              -854195386,
              -138610764,
              -111695130,
              -291916157,
              -135892017,
              -840954720,
              2256141722,
              1114641908,
              513866685,
              936588520,
              60669663,
              1233193967,
              -691008846,
              -482466021,
              -102635775,
              -37328881,
              523418888
            ],
            "minimum_signed_cleared_score": 890467343664,
            "floating_margin": 69377.78318834305,
            "positive_heads": 3,
            "restart": 3,
            "rounding_scale": 1000,
            "continuous_inner_lp_margin": 7.612144624725997e-05
          }
        },
        {
          "positive_heads": 4,
          "trials": 1000,
          "method": "continuous_inner_lp",
          "continuous_best": {
            "positive_heads": 4,
            "restart": 0,
            "continuous_inner_lp_margin": 0.07557678493039455,
            "active_dual_rows": 17,
            "anchor_index": 0,
            "anchor_value": 1,
            "optimizer_success": true,
            "optimizer_message": "CONVERGENCE: REL_REDUCTION_OF_F_<=_FACTR*EPSMCH",
            "literal_weights": [
              [
                0.00035425203815780536,
                0.5966679954815782,
                0.4023639680880071,
                0.000310052213978695,
                0.00022733922884906485,
                7.639294942918791e-05
              ],
              [
                0.0017088653324615222,
                0.5175694828796082,
                0.47698705767209687,
                0.0035429432126227096,
                5.869864812670251e-05,
                0.00013295225508387767
              ],
              [
                0.017648971710922903,
                0.25605781842520947,
                0.20716916767945034,
                0.015717014965491712,
                0.2540403421762162,
                0.2493666850427094
              ],
              [
                1.6131922457244198e-05,
                7.428978103666365e-05,
                2.7521410593825683e-05,
                0.3282013676633775,
                0.33301354271139877,
                0.33866714651113594
              ]
            ]
          },
          "certificate": {
            "denominators": [
              [
                1,
                597,
                402,
                1,
                1,
                1
              ],
              [
                2,
                518,
                477,
                4,
                1,
                1
              ],
              [
                18,
                256,
                207,
                16,
                254,
                249
              ],
              [
                1,
                1,
                1,
                328,
                333,
                339
              ]
            ],
            "score_coefficients": [
              18892218898734,
              67549428004129,
              6159996522504217,
              6736758287123490,
              -114054578366951,
              -154493509955004,
              -171536679287840,
              -159436318872090,
              -8513559236918461,
              -10722196696515134,
              389927395944547,
              223457500060898,
              264088717996104,
              -1546181831108111,
              -14848688146096008,
              -11971855252158034,
              -1257860770235644,
              -16097015711595354,
              -15798862887866158,
              79204202854499,
              -208725477444475,
              -208725477444475,
              15840552512053340,
              16461915167522712,
              16743761676868722
            ],
            "minimum_signed_cleared_score": 1033189351190,
            "floating_margin": 0.008236501342532065,
            "positive_heads": 4,
            "restart": 0,
            "rounding_scale": 1000,
            "continuous_inner_lp_margin": 0.07557678493039455
          }
        }
      ]
    },
    "two_flips": {
      "exceptions": [
        3,
        12
      ],
      "truth_mask_hex": "0x69968661",
      "attempts": [
        {
          "positive_heads": 0,
          "trials": 71,
          "method": "random_fixed_denominators",
          "continuous_best": null,
          "certificate": {
            "denominators": [
              [
                5511,
                -2568,
                -2457,
                -31,
                -47,
                -2
              ],
              [
                11224,
                -13,
                -152,
                -12,
                -6890,
                -3126
              ],
              [
                11473,
                -127,
                -451,
                -1070,
                -176,
                -7765
              ],
              [
                627,
                -165,
                -2,
                -21,
                -11,
                -417
              ]
            ],
            "score_coefficients": [
              -683807,
              -19926751603,
              -15901141876,
              14856075398,
              6266567873,
              13795376264,
              26266977570,
              -15733460431,
              -17256435437,
              -5025588679,
              -23242461918,
              -49566944503,
              24136180777,
              82408987282,
              110804615922,
              -9650912732,
              -5344747244,
              112732018751,
              -56490855476,
              -896659290,
              305187884,
              -624279230,
              371510646,
              618139921,
              -897977312
            ],
            "minimum_signed_cleared_score": 445830856175214,
            "floating_margin": 3419764.691175461,
            "trial": 71,
            "positive_heads": 0
          }
        },
        {
          "positive_heads": 1,
          "trials": 270,
          "method": "random_fixed_denominators",
          "continuous_best": null,
          "certificate": {
            "denominators": [
              [
                6492,
                -89,
                -6338,
                -39,
                -16,
                -8
              ],
              [
                4068,
                -3489,
                -511,
                -2,
                -20,
                -30
              ],
              [
                562,
                -2,
                -1,
                -142,
                -24,
                -21
              ],
              [
                7,
                4,
                5,
                224,
                258,
                7793
              ]
            ],
            "score_coefficients": [
              75843593782,
              227054097114,
              -1307753808052,
              1306315585111,
              -5574137805,
              -139066903476,
              -75016462597,
              6802103569756,
              -5837953668463,
              -484545553518,
              -87553782510,
              -41889030532,
              -146518291471,
              53678044701641,
              3793248694,
              -5531330364289,
              -13704956902308,
              -2318140922180,
              -1478438993633,
              -1211434550945,
              -693782627690,
              -869374765873,
              -38709710787898,
              -44645999198719,
              -1356017122206465
            ],
            "minimum_signed_cleared_score": 111010035750224,
            "floating_margin": 164.54930436611176,
            "trial": 270,
            "positive_heads": 1
          }
        },
        {
          "positive_heads": 2,
          "trials": 77,
          "method": "random_fixed_denominators",
          "continuous_best": null,
          "certificate": {
            "denominators": [
              [
                2508,
                -2448,
                -3,
                -2,
                -51,
                -1
              ],
              [
                6616,
                -4,
                -110,
                -673,
                -3,
                -1299
              ],
              [
                11,
                1,
                2157,
                4870,
                3364,
                1
              ],
              [
                3,
                2971,
                3849,
                13,
                2,
                5018
              ]
            ],
            "score_coefficients": [
              -2055815591,
              -1815097173,
              -24134828249,
              1153657851,
              565598487,
              22555255034,
              353794968,
              -13094010190382,
              1909752335284,
              524884766808,
              1356218831088,
              129497364162,
              1782884903990,
              -81487648961,
              54696310381,
              174930579091,
              595879303291,
              115504639438,
              82066278070,
              34336598700,
              12177353322600,
              15154193617769,
              -163264333889,
              -65774405604,
              20720709551581
            ],
            "minimum_signed_cleared_score": 1030784973688800,
            "floating_margin": 75498.44821590185,
            "trial": 77,
            "positive_heads": 2
          }
        },
        {
          "positive_heads": 3,
          "trials": 223,
          "method": "random_fixed_denominators",
          "continuous_best": null,
          "certificate": {
            "denominators": [
              [
                2003,
                -24,
                -7,
                -81,
                -1872,
                -15
              ],
              [
                1,
                7906,
                5297,
                111,
                3,
                9
              ],
              [
                21,
                5,
                222,
                2591,
                1653,
                288
              ],
              [
                1,
                12,
                220,
                98,
                2,
                7703
              ]
            ],
            "score_coefficients": [
              609932210241140,
              12293012841155054,
              -306053917617030,
              -93219381498931,
              -1951062377431001,
              -9626194237285436,
              -266251018008734,
              -3322040740377122,
              -5029548172278277120,
              -3371485900324765184,
              -70627399179781768,
              -1877552043314712,
              -3042877129410500,
              -11579568881101776,
              4452859001177889,
              199882024001565600,
              2336975967589542912,
              1456261038392274688,
              289964563362545344,
              3257394279046186,
              -10921146371547514,
              -191437811857289216,
              -88792427948325136,
              -3837648417634354,
              -6786070252661318656
            ],
            "minimum_signed_cleared_score": 631257227309658,
            "floating_margin": 0.18295732649494312,
            "trial": 223,
            "positive_heads": 3
          }
        },
        {
          "positive_heads": 4,
          "trials": 68,
          "method": "random_fixed_denominators",
          "continuous_best": null,
          "certificate": {
            "denominators": [
              [
                4827,
                2,
                1,
                23,
                21,
                19
              ],
              [
                176,
                4075,
                2486,
                3189,
                6,
                61
              ],
              [
                44,
                29,
                20,
                31,
                2,
                50
              ],
              [
                1953,
                4,
                3,
                231,
                1898,
                2
              ]
            ],
            "score_coefficients": [
              34057833,
              165517555394,
              192661809,
              162766808,
              27292113757,
              -234584550862,
              -885779676,
              -12879795872,
              -298295731418,
              -181955006942,
              -233309452056,
              -435226028,
              -4466688098,
              128472867,
              85659353,
              59208999,
              82303502,
              -1455097,
              132607759,
              3788431320,
              -103811860,
              -103354229,
              -11347803344,
              191020685945,
              871665038
            ],
            "minimum_signed_cleared_score": 36457595404688,
            "floating_margin": 189566.19243240356,
            "trial": 68,
            "positive_heads": 4
          }
        }
      ]
    }
  }
}
