{
  "status": "Every reported H5 success and fixed-tuple obstruction is exact. Continuous and random search failures are not a global H5 lower bound.",
  "parameters": {
    "continuous_seeds": 1,
    "restarts_per_orientation_type": 160,
    "max_iterations": 2200,
    "random_fixed_trials": 0,
    "seed": 65320260714,
    "fixed_lp_tested_for_every_continuous_restart": true,
    "exact_fixed_obstructions": false,
    "orientation_types_up_to_head_permutation": [
      2,
      3,
      1,
      4,
      0,
      5
    ]
  },
  "known_certificate_self_check": {
    "endpoint_margin": 11464,
    "adjacent_margin": 13400
  },
  "candidates": {
    "0x03": {
      "flip_weight": 2,
      "threshold_degree": 5,
      "continuous_attempts": [
        {
          "seed_index": 0,
          "positive_heads": 2,
          "best": {
            "positive_heads": 2,
            "orientations": [
              -1,
              -1,
              -1,
              1,
              1
            ],
            "restart": 39,
            "accuracy": 59,
            "minimum_signed_smooth_score": -0.9210423668939818,
            "literal_weights": [
              [
                4.167410400107401e-07,
                0.0015733632536488347,
                9.694617703981956e-05,
                0.004006790091673217,
                0.004608507723126153,
                0.9885750836690095,
                0.0011388923444623483
              ],
              [
                0.0038378334511963356,
                9.918050034309806e-05,
                0.9827019668457272,
                0.005930434481226809,
                0.007360022395922227,
                2.4750329410295064e-05,
                4.581199617418054e-05
              ],
              [
                0.0005638128136277638,
                0.040292042257143425,
                0.00024657482467861994,
                0.05497594448156907,
                0.05534802333880046,
                0.00019856307674058648,
                0.8483750392074401
              ],
              [
                0.00013865785988442588,
                0.8949032766767147,
                0.059927303212337545,
                0.0005653582973684266,
                0.009648335330588818,
                0.00014681450350768178,
                0.034670254119598655
              ],
              [
                2.050620118529869e-06,
                2.2414504958970338e-05,
                0.003249182617050721,
                0.9876960738806105,
                0.001986498563867826,
                0.0007237821315416145,
                0.006319997681851871
              ]
            ],
            "wrong_vertices": [
              5,
              13,
              42,
              48,
              50
            ],
            "cut_cone_initial_l1_residual": null,
            "cut_cone_dual_separation": {
              "minimum_cut_generator_value": 0.00323126544373753,
              "maximum_cut_generator_value": 0.35773392036147944,
              "annihilator_residual": 2.7981506001140133e-12,
              "proper_fourier_functional": [
                -0.6731196460388027,
                -0.13118338895468334,
                0.07497860537545505,
                -0.36913325837651173,
                0.7552592668094893,
                1.0,
                -0.8041658673939748,
                -1.0,
                -0.004037009046830467,
                0.0661994180529192,
                -0.16883261641413339,
                0.20326919022893097,
                0.36895146792698646,
                -0.3558146367871914,
                0.33652825089330224,
                -0.43285962760132146,
                0.11534593350042945,
                0.7118472959593465,
                -1.0,
                -0.4550358697921291,
                1.0,
                0.13567232984788674,
                -0.8716529101527339,
                1.0,
                0.5966719043831846,
                -0.06298134904056837,
                0.06309939795817715,
                -0.3213475897465207,
                -0.01637078360734457,
                -0.48415862935142157,
                -0.41794437628318076,
                0.47005329096175347,
                -1.0,
                0.05150202889818724,
                -0.6181252415187185,
                -0.605728566616669,
                1.0,
                -0.321722428987725,
                -0.476724777553682,
                0.9903832512039662,
                0.3820198929000762,
                -1.0,
                1.0,
                0.4505271123935578,
                -0.2839124133839499,
                -0.06051702309768923,
                -0.20171927653313187,
                0.8399271560022916,
                0.34592853445535715,
                0.2515372313566015,
                0.6381745571465609,
                0.5584591707095568,
                -0.6331136225453923,
                1.0,
                -0.07727845845409656,
                0.2632363261510486,
                -0.25950215360032636,
                0.7769608220676081,
                0.4573965165055911,
                1.0,
                -1.0,
                -1.0,
                1.0
              ],
              "cut_generator_values": [
                0.003231265443737745,
                0.0033028998416096828,
                0.003231265443738529,
                0.003716004311547602,
                0.00378812052157141,
                0.012294244656377906,
                0.0038897377038498975,
                0.003231265443737724,
                0.0032312654437377485,
                0.08364407192309556,
                0.003231265443737641,
                0.003605176045395189,
                0.0037884099494718826,
                0.003231265443737724,
                0.003231265443737804,
                0.0032312654437378283,
                0.004712955322273173,
                0.003231265443738248,
                0.0032312654437375923,
                0.0033017578257924923,
                0.0037426060652008958,
                0.08158411196221313,
                0.005876108657966242,
                0.2850805565180513,
                0.006570114999753379,
                0.003231265443738557,
                0.35773392036147944,
                0.003231265443737672,
                0.0037138571799653665,
                0.0976421997567566,
                0.0032312654437377693,
                0.15627680313137912,
                0.00815247394403475,
                0.0786036264091752,
                0.003231265443737792,
                0.004807154745034306,
                0.003825819634049349,
                0.10384708932339444,
                0.013668061368735766,
                0.1788655063041118,
                0.010373797525158102,
                0.3434795105245399,
                0.0032312654437377034,
                0.0037927055821697295,
                0.003783368548390273,
                0.09903077384481357,
                0.014158712320426266,
                0.10162020743031436,
                0.04743554114605267,
                0.0032312654437377866,
                0.06653170337080644,
                0.003231265443737724,
                0.0044043567389509125,
                0.11447865063120324,
                0.042763557113331435,
                0.0032312654437384805,
                0.020304466998345136,
                0.011625533449573823,
                0.09215357543642044,
                0.0036589315462423125,
                0.00323126544373753,
                0.09197517960246807,
                0.1479494271070232
              ]
            }
          }
        },
        {
          "seed_index": 0,
          "positive_heads": 3,
          "best": {
            "positive_heads": 3,
            "orientations": [
              -1,
              -1,
              1,
              1,
              1
            ],
            "restart": 90,
            "accuracy": 59,
            "minimum_signed_smooth_score": -0.283371041812849,
            "literal_weights": [
              [
                1.3914223628809665e-05,
                0.08105601510354463,
                0.00013821045926879812,
                0.05124671596822548,
                0.05301929065449269,
                0.8144697051815019,
                5.6148409337928074e-05
              ],
              [
                7.971485041488658e-06,
                0.035073555360887465,
                1.2150636566080727e-05,
                0.022331397859307982,
                0.02467724951713304,
                0.02544132336999957,
                0.8924563517710644
              ],
              [
                0.005832892924577978,
                0.0008891259617224841,
                0.0024838355060882934,
                0.16829367829751948,
                0.1743793127415404,
                0.28730226371066186,
                0.36081889085788954
              ],
              [
                0.03505336970313646,
                2.1994907988729968e-06,
                0.9648930788999666,
                1.9044132163347983e-07,
                2.51141570594753e-05,
                1.886318102206821e-05,
                7.184126694618517e-06
              ],
              [
                0.000141317672264652,
                0.5459384700452269,
                0.0049684841992068,
                0.08944631357312972,
                0.09296990382322691,
                0.11636512811692797,
                0.15017038257001702
              ]
            ],
            "wrong_vertices": [
              26,
              38,
              42,
              46,
              54
            ],
            "cut_cone_initial_l1_residual": 0.02721619214922978,
            "cut_cone_dual_separation": {
              "minimum_cut_generator_value": 0.0,
              "maximum_cut_generator_value": 0.0,
              "annihilator_residual": 0.0,
              "proper_fourier_functional": [
                -0.0,
                -0.0,
                -0.0,
                -0.0,
                -0.0,
                -0.0,
                -0.0,
                -0.0,
                -0.0,
                -0.0,
                -0.0,
                -0.0,
                -0.0,
                -0.0,
                -0.0,
                -0.0,
                -0.0,
                -0.0,
                -0.0,
                -0.0,
                -0.0,
                -0.0,
                -0.0,
                -0.0,
                -0.0,
                -0.0,
                -0.0,
                -0.0,
                -0.0,
                -0.0,
                -0.0,
                -0.0,
                -0.0,
                -0.0,
                -0.0,
                -0.0,
                -0.0,
                -0.0,
                -0.0,
                -0.0,
                -0.0,
                -0.0,
                -0.0,
                -0.0,
                -0.0,
                -0.0,
                -0.0,
                -0.0,
                -0.0,
                -0.0,
                -0.0,
                -0.0,
                -0.0,
                -0.0,
                -0.0,
                -0.0,
                -0.0,
                -0.0,
                -0.0,
                -0.0,
                -0.0,
                -0.0,
                -0.0
              ],
              "cut_generator_values": [
                0.0,
                0.0,
                0.0,
                0.0,
                0.0,
                0.0,
                0.0,
                0.0,
                0.0,
                0.0,
                0.0,
                0.0,
                0.0,
                0.0,
                0.0,
                0.0,
                0.0,
                0.0,
                0.0,
                0.0,
                0.0,
                0.0,
                0.0,
                0.0,
                0.0,
                0.0,
                0.0,
                0.0,
                0.0,
                0.0,
                0.0,
                0.0,
                0.0,
                0.0,
                0.0,
                0.0,
                0.0,
                0.0,
                0.0,
                0.0,
                0.0,
                0.0,
                0.0,
                0.0,
                0.0,
                0.0,
                0.0,
                0.0,
                0.0,
                0.0,
                0.0,
                0.0,
                0.0,
                0.0,
                0.0,
                0.0,
                0.0,
                0.0,
                0.0,
                0.0,
                0.0,
                0.0,
                0.0
              ]
            }
          }
        }
      ],
      "five_head_certificate": {
        "denominators": [
          [
            100001,
            -8106,
            -14,
            -5125,
            -5302,
            -81447,
            -6
          ],
          [
            100000,
            -3507,
            -1,
            -2233,
            -2468,
            -2544,
            -89246
          ],
          [
            583,
            89,
            248,
            16829,
            17438,
            28730,
            36082
          ],
          [
            3505,
            1,
            96489,
            1,
            3,
            2,
            1
          ],
          [
            14,
            54594,
            497,
            8945,
            9297,
            11637,
            15017
          ]
        ],
        "score_coefficients": [
          102895,
          -1791444002,
          -774107753,
          -137999348,
          -502994102,
          -429981622,
          3502004418,
          7029677043,
          -2930719046,
          -85932402,
          -547430286,
          57886766,
          98503063,
          -3005973805,
          3083604970,
          -2392564538,
          2372782840,
          -1593255689,
          3008609432,
          3268038801,
          850218626,
          3281269427,
          354642836,
          -486760215,
          -10295434190,
          -190666380,
          -187832192,
          -250285668,
          -504961595,
          102496781,
          -1845271748,
          2373164508,
          -1282109436,
          -1521730615,
          -1404588953,
          -2377061274
        ],
        "minimum_signed_cleared_score": 891110131538309455475560,
        "floating_normalized_cleared_margin": 3.766613383161878e-06,
        "positive_heads": 3,
        "continuous_restart": 90,
        "rounding_scale": 100000,
        "seed": 65320291038
      },
      "outcome": "exact H5 certificate found"
    },
    "0x07": {
      "flip_weight": 3,
      "threshold_degree": 5,
      "continuous_attempts": [
        {
          "seed_index": 0,
          "positive_heads": 2,
          "best": {
            "positive_heads": 2,
            "orientations": [
              -1,
              -1,
              -1,
              1,
              1
            ],
            "restart": 120,
            "accuracy": 53,
            "minimum_signed_smooth_score": -3.5711126610704227,
            "literal_weights": [
              [
                0.0001517351667791564,
                0.127968201123532,
                0.005717457043918435,
                0.050262401599444034,
                0.2765727850266844,
                0.2708769023518786,
                0.2684505176877634
              ],
              [
                7.519555357798372e-05,
                0.0003336579836092165,
                0.1634849053335925,
                0.000409296521349828,
                0.3723775890972456,
                0.23350815171791234,
                0.22981120379271255
              ],
              [
                6.952391278794811e-05,
                0.38729106138241487,
                0.00010129458212949005,
                0.36610740920648854,
                0.08158648746118181,
                0.08069655275027125,
                0.08414767070472609
              ],
              [
                0.003311723851932056,
                2.5595360214895426e-06,
                0.9965264382734856,
                8.974268921470872e-05,
                2.2912180759944485e-05,
                2.2563603168477378e-05,
                2.4059865417536e-05
              ],
              [
                0.010630275471605527,
                1.3974524499064974e-05,
                0.9892292956798944,
                6.065113051937873e-05,
                2.0017194000342756e-05,
                1.8956792713620182e-05,
                2.682920676801925e-05
              ]
            ],
            "wrong_vertices": [
              0,
              1,
              2,
              4,
              5,
              8,
              10,
              16,
              18,
              32,
              34
            ],
            "cut_cone_initial_l1_residual": 0.2421631818313158,
            "cut_cone_dual_separation": {
              "minimum_cut_generator_value": 3.3467384403691736e-06,
              "maximum_cut_generator_value": 0.5131412269316649,
              "annihilator_residual": 3.324378938796002e-09,
              "proper_fourier_functional": [
                0.7221717362347562,
                0.6587630041848687,
                0.3040951728683125,
                0.7402752892636434,
                -0.62682366923741,
                -0.5956220822541535,
                -0.7933999231787504,
                0.3674974289851481,
                0.6371537896124224,
                -0.060002091433603355,
                -0.6143520607121408,
                -1.0,
                0.28600474074252275,
                -0.39947478007434073,
                -0.4306511320759856,
                -0.2328422923935863,
                -1.0,
                -0.2757588289723524,
                -1.0,
                0.664357982901666,
                0.5262442497756469,
                0.38915832254325844,
                0.38908298346664455,
                -0.9663231309108131,
                -0.4118752933232713,
                -0.02624781360535856,
                -0.8773775205832408,
                -0.22492373381170389,
                -1.0,
                0.026342577779170928,
                0.026272182476683344,
                0.3908979761640914,
                -0.02624835149119615,
                -0.7505925110314576,
                -0.02626485444077317,
                0.36194988488286417,
                0.500048607732287,
                0.6370911130851622,
                0.32940261347814087,
                0.9744627956598224,
                0.6827140236764057,
                -0.7109299858022434,
                -0.1489123940026494,
                -0.8012149553621817,
                -0.026235713924777724,
                1.0,
                1.0,
                0.6353693912927212,
                0.16544383286132958,
                0.2765992542950104,
                1.0,
                -0.40486823841310227,
                0.6967849316139235,
                0.05184961999852025,
                0.3437531218452675,
                -0.3153451480511681,
                -0.026094400877519464,
                0.8609336620312238,
                0.7497387756103484,
                0.0260601967514118,
                -0.6213948938105723,
                1.0,
                -1.0
              ],
              "cut_generator_values": [
                0.034511394975664036,
                0.0876185696626049,
                1.1475879336558803e-05,
                3.3467384417985857e-06,
                3.3467384418124635e-06,
                3.3467384592464344e-06,
                9.882700664480548e-06,
                3.3467384417673607e-06,
                3.3467384495805552e-06,
                3.346738446361776e-06,
                3.3467384417812385e-06,
                0.0013734225995713015,
                0.017689348930004692,
                4.985944589603469e-06,
                3.3467384420067525e-06,
                0.06421251945182553,
                0.13150524134796504,
                1.2396403436809589e-05,
                8.025887893503558e-06,
                0.05509566338351569,
                0.1122354999100355,
                7.083097890353551e-06,
                3.3467384418055246e-06,
                0.05056551251990715,
                0.01762811852669038,
                4.394915361010526e-06,
                9.343286375300408e-06,
                0.00982608757792399,
                0.0005386423777564431,
                3.823240389090599e-06,
                3.3467384417742996e-06,
                0.030787982319823194,
                0.1301573168885371,
                1.992773199187628e-05,
                3.346738441822872e-06,
                0.015449458893649497,
                0.020691016019938956,
                2.1292136047915133e-05,
                3.3467384417985857e-06,
                3.34673844183328e-06,
                0.13076533379421645,
                3.672994779782557e-06,
                3.346738441569602e-06,
                3.3467384417951163e-06,
                0.1693370606662099,
                3.3467384417673607e-06,
                3.346738441808994e-06,
                3.3467384417951163e-06,
                0.024782131742472176,
                2.4071447096846166e-05,
                3.346738441822872e-06,
                0.13591338304037498,
                0.15720059847012818,
                2.587184499325268e-05,
                1.4055500316974279e-05,
                3.3467384417812385e-06,
                3.3467384403691736e-06,
                3.3467384432661618e-06,
                3.3467384417500134e-06,
                0.11545396053620435,
                3.3467384417742996e-06,
                3.346738441822872e-06,
                0.5131412269316649
              ]
            }
          }
        },
        {
          "seed_index": 0,
          "positive_heads": 3,
          "best": {
            "positive_heads": 3,
            "orientations": [
              -1,
              -1,
              1,
              1,
              1
            ],
            "restart": 64,
            "accuracy": 50,
            "minimum_signed_smooth_score": -0.4715300540824825,
            "literal_weights": [
              [
                4.3850073085778906e-05,
                0.4407508370517142,
                0.2962434454200942,
                0.018706576191337313,
                0.002438260559919928,
                0.00012842039686303806,
                0.2416886103069855
              ],
              [
                6.570830201469659e-05,
                9.45953766182869e-05,
                0.256233845851127,
                0.0071992738118046825,
                0.0001966342081788413,
                0.56969600004498,
                0.1665139424052765
              ],
              [
                0.00035623551948668045,
                0.00033723683144098684,
                0.05654505430734507,
                0.0002754325652568048,
                0.88648080421393,
                0.05071767354859824,
                0.005287563013941973
              ],
              [
                3.9509006342462516e-05,
                0.03954256547176743,
                0.0007703608107058781,
                0.028772283192383757,
                0.8848547825300825,
                0.04597843408582052,
                4.206490289727083e-05
              ],
              [
                0.00036706634098048895,
                0.00033435668174027736,
                8.21967581055168e-05,
                0.00025741792440632977,
                0.9442187377519063,
                0.049130469415421665,
                0.005609755127439345
              ]
            ],
            "wrong_vertices": [
              9,
              10,
              13,
              14,
              16,
              17,
              24,
              26,
              28,
              40,
              44,
              49,
              56,
              57
            ],
            "cut_cone_initial_l1_residual": 0.11311903089637457,
            "cut_cone_dual_separation": {
              "minimum_cut_generator_value": 0.07630840536506275,
              "maximum_cut_generator_value": 0.4344630961097695,
              "annihilator_residual": 2.958744360626042e-14,
              "proper_fourier_functional": [
                -0.909213391694633,
                0.011722503504655441,
                -0.029785519038895956,
                1.0,
                -0.8494789943629892,
                -0.9704608059647488,
                0.0006120667817620825,
                0.6556158707205364,
                -0.7393609532346427,
                6.0386176296304304e-05,
                -0.0979632614744368,
                -0.669111023642989,
                -0.6301748726891503,
                -0.03885007870292774,
                0.5634831404859316,
                0.7967544324673504,
                1.0,
                0.4599936819980608,
                -1.0,
                -1.0,
                -0.27782241061454455,
                0.7415673756377705,
                0.812123005748076,
                0.30312706576347537,
                0.04058056421676078,
                1.0,
                -1.0,
                1.0,
                -1.0,
                -0.1834060722604181,
                -1.0,
                0.9672341593884981,
                0.7906065133263224,
                1.0,
                0.6982520674939233,
                0.7901980724181077,
                0.33883748637485894,
                -0.5601226537086352,
                0.7764513178919425,
                0.2728253262948018,
                1.0,
                1.0,
                1.0,
                0.26988093476616626,
                -1.0,
                1.0,
                -0.050844901580826884,
                -1.0,
                0.7302143263596188,
                0.9559743925915499,
                1.0,
                1.0,
                -0.6213985000472618,
                1.0,
                -0.08451565570301045,
                0.128611175383611,
                -0.16647271594640434,
                1.0,
                1.0,
                -0.8852426943763403,
                0.7405237854084394,
                1.0,
                -0.8947718068094858
              ],
              "cut_generator_values": [
                0.11340724173746454,
                0.31149230675508477,
                0.22869795100092907,
                0.07630840536506275,
                0.16320275808308968,
                0.09541768460716094,
                0.13516016410224238,
                0.13953425550474186,
                0.18860330187599345,
                0.09552922925268881,
                0.11880971962519263,
                0.10036039070761506,
                0.12203731801601769,
                0.08169420283819737,
                0.07630840536506278,
                0.1930098688212284,
                0.23378239201669257,
                0.09362642290555151,
                0.19751534247068,
                0.27170333003400554,
                0.4344630961097695,
                0.07630840536506275,
                0.07630840536506281,
                0.1662635943597306,
                0.25895672935089514,
                0.15640613267968373,
                0.4097513874670336,
                0.07630840536506278,
                0.11057424308189581,
                0.0763084053650628,
                0.21527717407912603,
                0.38009009452244175,
                0.09619949288476948,
                0.07630840536506278,
                0.31264296706295086,
                0.25830505696619743,
                0.3353191677330495,
                0.24363590806056518,
                0.1916864041845577,
                0.18481285362500435,
                0.18984878006516703,
                0.09583393831739585,
                0.11086411283349693,
                0.1779252632009255,
                0.1790009666997082,
                0.0983726698496107,
                0.11571725346564049,
                0.0763084053650628,
                0.07630840536506277,
                0.24658208965019457,
                0.2407251634945001,
                0.07630840536506277,
                0.4025563020644863,
                0.14039763545834366,
                0.18197033857986278,
                0.25530704337781596,
                0.11776951556149809,
                0.22413100915538287,
                0.29796200454284744,
                0.23164159508532428,
                0.07630840536506278,
                0.2122596347815973,
                0.19002738162443927
              ]
            }
          }
        },
        {
          "seed_index": 0,
          "positive_heads": 1,
          "best": {
            "positive_heads": 1,
            "orientations": [
              -1,
              -1,
              -1,
              -1,
              1
            ],
            "restart": 44,
            "accuracy": 53,
            "minimum_signed_smooth_score": -2.2141929693079163,
            "literal_weights": [
              [
                0.9519396386682729,
                0.00018527281792561504,
                0.020301646873712182,
                0.004943326062410887,
                0.0015040195390351942,
                0.0055330291637522636,
                0.015593066874891261
              ],
              [
                0.0012613416927694631,
                0.01163122013244168,
                0.011083397839291131,
                0.01192583448588541,
                0.00019042096047886542,
                0.9635149970232589,
                0.0003927878658744874
              ],
              [
                2.135207209324217e-06,
                0.33378055439911797,
                0.3111310711697033,
                0.3262733901002474,
                0.015227035634578303,
                0.013343019431901157,
                0.00024279405724242047
              ],
              [
                8.64744291314347e-05,
                0.021020062971938685,
                0.02006837827473489,
                0.021550044327945248,
                0.0022995114722633102,
                9.448985317961528e-05,
                0.9348810386708069
              ],
              [
                0.008614987242539566,
                0.00033936470371097733,
                7.773390699046775e-05,
                0.0004337068988522489,
                0.01955360285912246,
                8.490783850652999e-05,
                0.9708956965502779
              ]
            ],
            "wrong_vertices": [
              0,
              8,
              10,
              12,
              16,
              17,
              24,
              32,
              40,
              48,
              56
            ],
            "cut_cone_initial_l1_residual": 0.8722234195758787,
            "cut_cone_dual_separation": {
              "minimum_cut_generator_value": 0.04284094343408193,
              "maximum_cut_generator_value": 0.4075411642118332,
              "annihilator_residual": 2.450151193045258e-12,
              "proper_fourier_functional": [
                -0.49908898673539437,
                0.029707136788310683,
                -0.7190101496642801,
                -0.2643451804374734,
                -0.7200597520147516,
                0.19021562188306498,
                -0.5054738211083616,
                0.5789709675559618,
                0.6066937752403305,
                -1.0,
                -0.362143256767006,
                -0.49864195255209987,
                -0.9081364500722968,
                -1.0,
                0.4310252398664713,
                -0.1670931036993344,
                1.0,
                -0.07573985699385018,
                -0.11881074846091616,
                0.8079005918383573,
                -0.7201668681115683,
                0.9155996233777938,
                1.0,
                -0.10343907874950964,
                -0.9494628895639287,
                1.0,
                1.0,
                -1.0,
                0.14584968715598923,
                -0.5126182251460081,
                0.5773327946190329,
                1.0,
                0.6841628130344529,
                0.6738902082305253,
                -0.3510929738921914,
                0.783211437903429,
                -0.30552639665033243,
                0.5728437452755359,
                1.0,
                -1.0,
                0.4979496956192217,
                0.830872214197545,
                1.0,
                -0.08718656170255346,
                1.0,
                -1.0,
                0.7005351554162705,
                -0.41321094271064174,
                0.4849332272897541,
                -0.5163498580849556,
                0.38895878399284023,
                1.0,
                -0.6985704418929056,
                0.44489318031381403,
                0.6459468926191688,
                0.7045251299691687,
                -0.6533974381083149,
                1.0,
                1.0,
                1.0,
                0.7241059546729326,
                -0.658267017590833,
                -0.1056140363958823
              ],
              "cut_generator_values": [
                0.05233111187173686,
                0.05234219185136044,
                0.04819597897270832,
                0.042840943434083054,
                0.04284094343408434,
                0.0428409434340846,
                0.04284094343408419,
                0.1372965965998358,
                0.1376227061292678,
                0.135335141613937,
                0.122520319663855,
                0.1297352977528643,
                0.1321144890978342,
                0.1403676619225067,
                0.1174442032264027,
                0.04284094343408429,
                0.04284094343408533,
                0.04284094343408287,
                0.29517901529979584,
                0.20925760545964112,
                0.24089149772453497,
                0.4075411642118332,
                0.042840943434084275,
                0.11567619042279767,
                0.24030785116588707,
                0.04284094343408318,
                0.2566841403452778,
                0.04284094343408431,
                0.17155576961719246,
                0.042840943434084316,
                0.1396896341530967,
                0.14842145492809253,
                0.046880792007513286,
                0.2102696882826507,
                0.33848134579349765,
                0.17986030469249512,
                0.04284094343408561,
                0.0428409434340843,
                0.042840943434084344,
                0.1546853693717317,
                0.04284094343408193,
                0.2224145846646671,
                0.34035058134192697,
                0.1954211208622893,
                0.04494004461834037,
                0.07863211658036001,
                0.24494829555874448,
                0.17597825408870466,
                0.13189739189928243,
                0.16418873532487155,
                0.11886349137266813,
                0.14011316394978218,
                0.2171639283955793,
                0.061390507541530887,
                0.042840943434084296,
                0.20360099338020277,
                0.1675654726905056,
                0.20824423969142883,
                0.13301262283505277,
                0.1281482747866184,
                0.07051095867919341,
                0.2106988222333913,
                0.20245167213574888
              ]
            }
          }
        },
        {
          "seed_index": 0,
          "positive_heads": 4,
          "best": {
            "positive_heads": 4,
            "orientations": [
              -1,
              1,
              1,
              1,
              1
            ],
            "restart": 0,
            "accuracy": 48,
            "minimum_signed_smooth_score": -0.004255825404666513,
            "literal_weights": [
              [
                0.9977403018200397,
                0.00023743112119183198,
                6.49054884319988e-05,
                0.00042517765346747365,
                0.0006828281796096397,
                0.0003212198477697384,
                0.0005281358894896091
              ],
              [
                1.297874270234545e-06,
                0.0013999104743766843,
                0.0005244578298036335,
                1.177476156216877e-06,
                9.843376080296774e-06,
                0.998049162903508,
                1.4150065805040382e-05
              ],
              [
                1.5323402842691956e-05,
                0.00010342421783395699,
                0.000753351877174638,
                0.00021729490034387908,
                1.2010667113029611e-06,
                0.998905935322246,
                3.4692128475516834e-06
              ],
              [
                1.0849423256880314e-07,
                6.104886625785385e-06,
                3.085739108475414e-06,
                0.00016521401802357057,
                0.00016667708672988134,
                0.9994193112879987,
                0.0002394984872812021
              ],
              [
                4.173055238250353e-08,
                6.587753414743366e-06,
                4.31134711658825e-06,
                2.816814867913096e-07,
                0.0002817978982675575,
                0.9993723186553061,
                0.000334660933856026
              ]
            ],
            "wrong_vertices": [
              17,
              19,
              22,
              23,
              24,
              25,
              28,
              29,
              30,
              48,
              52,
              53,
              58,
              59,
              61,
              63
            ],
            "cut_cone_initial_l1_residual": 0.17641758136057056,
            "cut_cone_dual_separation": {
              "minimum_cut_generator_value": 0.9999999999761087,
              "maximum_cut_generator_value": 1.0000000000238913,
              "annihilator_residual": 7.645150068569251e-10,
              "proper_fourier_functional": [
                1.0,
                1.0,
                0.9999999992354761,
                1.0,
                1.0,
                1.0,
                1.0,
                1.0,
                1.0,
                1.0,
                1.0,
                1.0,
                1.0,
                1.0,
                1.000000000764524,
                1.0,
                1.0,
                1.0,
                1.0,
                1.0,
                1.0,
                1.0,
                1.0,
                1.0,
                1.0,
                1.0,
                1.0,
                1.0,
                1.0,
                1.0,
                1.0,
                1.0,
                1.0,
                1.0,
                1.0,
                1.0,
                1.0,
                1.0,
                1.0,
                1.0,
                1.0,
                1.0,
                1.0,
                1.0,
                1.0,
                1.0,
                1.0,
                1.0,
                1.0,
                1.0,
                1.0,
                1.0,
                1.0,
                1.0,
                1.0,
                1.0,
                1.0,
                1.0,
                1.0,
                1.0,
                1.0,
                1.0,
                1.0
              ],
              "cut_generator_values": [
                1.0,
                1.0,
                1.0,
                1.0,
                1.0,
                1.0,
                1.0,
                1.0,
                1.0,
                1.0,
                1.0,
                1.0,
                1.0,
                1.0,
                1.0,
                0.9999999999761087,
                1.0000000000238913,
                0.9999999999761087,
                1.0000000000238913,
                1.0000000000238913,
                0.9999999999761087,
                1.0000000000238913,
                0.9999999999761087,
                1.0000000000238913,
                0.9999999999761087,
                1.0000000000238913,
                0.9999999999761087,
                0.9999999999761087,
                1.0000000000238913,
                0.9999999999761087,
                1.0000000000238913,
                1.0,
                1.0,
                1.0,
                1.0,
                1.0,
                1.0,
                1.0,
                1.0,
                1.0,
                1.0,
                1.0,
                1.0,
                1.0,
                1.0,
                1.0,
                1.0,
                1.0000000000238913,
                0.9999999999761087,
                1.0000000000238913,
                0.9999999999761087,
                0.9999999999761087,
                1.0000000000238913,
                0.9999999999761087,
                1.0000000000238913,
                0.9999999999761087,
                1.0000000000238913,
                0.9999999999761087,
                1.0000000000238913,
                1.0000000000238913,
                0.9999999999761087,
                1.0000000000238913,
                0.9999999999761087
              ]
            }
          }
        }
      ],
      "five_head_certificate": null
    }
  }
}
