{
  "status": "Every success is exact. A failure is only search evidence.",
  "truth_mask_hex": "0x29867996bc83833c",
  "attempts": [
    {
      "positive_heads": 0,
      "best": {
        "positive_heads": 0,
        "restart": 8,
        "continuous_inner_lp_margin": 7.850707923080461e-06,
        "active_dual_rows": 25,
        "anchor_index": 4,
        "anchor_value": 1,
        "optimizer_success": true,
        "optimizer_message": "CONVERGENCE: REL_REDUCTION_OF_F_<=_FACTR*EPSMCH",
        "literal_weights": [
          [
            0.9080203725980232,
            0.003724024278215928,
            0.011421482347545071,
            0.016490871229816507,
            0.0483310362173958,
            0.005764606485571472,
            0.00624760684343208
          ],
          [
            0.0038505652696182425,
            0.005304669674338662,
            0.02082688394487692,
            0.030025855293351097,
            0.8975940478884622,
            0.038800733699435666,
            0.0035972442299171048
          ],
          [
            0.012451283737838307,
            0.031008084927863038,
            0.08474148941801664,
            0.8048538441129286,
            0.043389650762796425,
            0.009714979817477912,
            0.013840667223079119
          ],
          [
            0.05278358601005653,
            0.05263869127526455,
            0.6675305469018552,
            0.11713924854131934,
            0.02001534065651407,
            0.06962612185049057,
            0.02026646476449983
          ]
        ]
      }
    }
  ],
  "h4_certificate": {
    "denominators": [
      [
        2999,
        -11,
        -34,
        -49,
        -145,
        -17,
        -19
      ],
      [
        3000,
        -16,
        -62,
        -90,
        -2693,
        -116,
        -11
      ],
      [
        3000,
        -93,
        -254,
        -2415,
        -130,
        -29,
        -42
      ],
      [
        3000,
        -158,
        -2003,
        -351,
        -60,
        -209,
        -61
      ]
    ],
    "score_coefficients": [
      10130659892735,
      -27332031851919608,
      91299115968857,
      333100939912021,
      491391666836861,
      2008748937306922,
      122318323788062,
      168316066947549,
      734647391101783,
      -117721289593,
      -1326876810137,
      -390521506031,
      -734766402687544,
      1704537490369,
      -229887224696,
      2019308143226831,
      -59972890364708,
      -167413583122886,
      -1642018871386124,
      -81569450021923,
      -21401791417223,
      -27041673227375,
      -5804789680350408,
      308046771956744,
      3862255978480798,
      694650221578606,
      124964690262467,
      407554116495702,
      119024654445765
    ],
    "minimum_signed_cleared_score": 81081198832062,
    "floating_margin": 1.0004404187202454,
    "positive_heads": 0,
    "restart": 8,
    "rounding_scale": 3000,
    "continuous_inner_lp_margin": 7.850707923080461e-06
  }
}
